<?xml version="1.0"?>
<opencv_storage>
<cascade>
  <stageType>BOOST</stageType>
  <featureType>HAAR</featureType>
  <height>20</height>
  <width>20</width>
  <stageParams>
    <boostType>GAB</boostType>
    <minHitRate>9.9500000476837158e-01</minHitRate>
    <maxFalseAlarm>5.0000000000000000e-01</maxFalseAlarm>
    <weightTrimRate>9.4999999999999996e-01</weightTrimRate>
    <maxDepth>1</maxDepth>
    <maxWeakCount>100</maxWeakCount></stageParams>
  <featureParams>
    <maxCatCount>0</maxCatCount>
    <featSize>1</featSize>
    <mode>BASIC</mode></featureParams>
  <stageNum>6</stageNum>
  <stages>
    <!-- stage 0 -->
    <_>
      <maxWeakCount>2</maxWeakCount>
      <stageThreshold>0.</stageThreshold>
      <weakClassifiers>
        <_>
          <internalNodes>
            0 -1 4 -6.9422423839569092e-02</internalNodes>
          <leafValues>
            1. -9.7044336795806885e-01</leafValues></_>
        <_>
          <internalNodes>
            0 -1 10 -7.9380065202713013e-02</internalNodes>
          <leafValues>
            1. -1.</leafValues></_></weakClassifiers></_>
    <!-- stage 1 -->
    <_>
      <maxWeakCount>2</maxWeakCount>
      <stageThreshold>-8.1853640079498291e-01</stageThreshold>
      <weakClassifiers>
        <_>
          <internalNodes>
            0 -1 5 -3.6495894193649292e-01</internalNodes>
          <leafValues>
            6.0000002384185791e-01 -9.4146341085433960e-01</leafValues></_>
        <_>
          <internalNodes>
            0 -1 15 -5.0430111587047577e-02</internalNodes>
          <leafValues>
            1.2292701750993729e-01 -9.6755909919738770e-01</leafValues></_></weakClassifiers></_>
    <!-- stage 2 -->
    <_>
      <maxWeakCount>3</maxWeakCount>
      <stageThreshold>-1.0360196828842163e+00</stageThreshold>
      <weakClassifiers>
        <_>
          <internalNodes>
            0 -1 1 2.2710207104682922e-01</internalNodes>
          <leafValues>
            -9.4174754619598389e-01 1.</leafValues></_>
        <_>
          <internalNodes>
            0 -1 12 8.9772775769233704e-02</internalNodes>
          <leafValues>
            -8.7239664793014526e-01 5.7965278625488281e-01</leafValues></_>
        <_>
          <internalNodes>
            0 -1 0 -4.9931667745113373e-03</internalNodes>
          <leafValues>
            9.1444814205169678e-01 -6.7392492294311523e-01</leafValues></_></weakClassifiers></_>
    <!-- stage 3 -->
    <_>
      <maxWeakCount>3</maxWeakCount>
      <stageThreshold>-9.8494863510131836e-01</stageThreshold>
      <weakClassifiers>
        <_>
          <internalNodes>
            0 -1 3 2.7531278133392334e-01</internalNodes>
          <leafValues>
            -9.4174754619598389e-01 1.</leafValues></_>
        <_>
          <internalNodes>
            0 -1 13 -1.5694689750671387e-01</internalNodes>
          <leafValues>
            9.0351843833923340e-01 -8.1960034370422363e-01</leafValues></_>
        <_>
          <internalNodes>
            0 -1 14 -9.2481583356857300e-02</internalNodes>
          <leafValues>
            7.7639925479888916e-01 -8.7947773933410645e-01</leafValues></_></weakClassifiers></_>
    <!-- stage 4 -->
    <_>
      <maxWeakCount>3</maxWeakCount>
      <stageThreshold>-1.1783994436264038e+00</stageThreshold>
      <weakClassifiers>
        <_>
          <internalNodes>
            0 -1 7 -3.0079948902130127e-01</internalNodes>
          <leafValues>
            1. -9.4174754619598389e-01</leafValues></_>
        <_>
          <internalNodes>
            0 -1 6 -1.1694869957864285e-02</internalNodes>
          <leafValues>
            4.0275907516479492e-01 -9.3170034885406494e-01</leafValues></_>
        <_>
          <internalNodes>
            0 -1 9 2.2425036132335663e-01</internalNodes>
          <leafValues>
            -6.3941097259521484e-01 8.9303725957870483e-01</leafValues></_></weakClassifiers></_>
    <!-- stage 5 -->
    <_>
      <maxWeakCount>3</maxWeakCount>
      <stageThreshold>-1.2377886772155762e+00</stageThreshold>
      <weakClassifiers>
        <_>
          <internalNodes>
            0 -1 8 2.8561934828758240e-01</internalNodes>
          <leafValues>
            -9.3236714601516724e-01 1.</leafValues></_>
        <_>
          <internalNodes>
            0 -1 11 5.0627052783966064e-02</internalNodes>
          <leafValues>
            -8.1764531135559082e-01 5.7339030504226685e-01</leafValues></_>
        <_>
          <internalNodes>
            0 -1 2 7.7855838462710381e-03</internalNodes>
          <leafValues>
            -7.7789241075515747e-01 5.1222372055053711e-01</leafValues></_></weakClassifiers></_></stages>
  <features>
    <_>
      <rects>
        <_>
          0 0 1 3 -1.</_>
        <_>
          0 1 1 1 3.</_></rects>
      <tilted>0</tilted></_>
    <_>
      <rects>
        <_>
          0 1 16 14 -1.</_>
        <_>
          0 8 16 7 2.</_></rects>
      <tilted>0</tilted></_>
    <_>
      <rects>
        <_>
          0 2 12 3 -1.</_>
        <_>
          0 3 12 1 3.</_></rects>
      <tilted>0</tilted></_>
    <_>
      <rects>
        <_>
          0 2 18 12 -1.</_>
        <_>
          0 8 18 6 2.</_></rects>
      <tilted>0</tilted></_>
    <_>
      <rects>
        <_>
          0 3 4 15 -1.</_>
        <_>
          2 3 2 15 2.</_></rects>
      <tilted>0</tilted></_>
    <_>
      <rects>
        <_>
          0 3 12 17 -1.</_>
        <_>
          4 3 4 17 3.</_></rects>
      <tilted>0</tilted></_>
    <_>
      <rects>
        <_>
          1 0 3 7 -1.</_>
        <_>
          2 0 1 7 3.</_></rects>
      <tilted>0</tilted></_>
    <_>
      <rects>
        <_>
          1 0 9 20 -1.</_>
        <_>
          4 0 3 20 3.</_></rects>
      <tilted>0</tilted></_>
    <_>
      <rects>
        <_>
          1 2 14 10 -1.</_>
        <_>
          8 2 7 10 2.</_></rects>
      <tilted>0</tilted></_>
    <_>
      <rects>
        <_>
          2 0 14 8 -1.</_>
        <_>
          9 0 7 8 2.</_></rects>
      <tilted>0</tilted></_>
    <_>
      <rects>
        <_>
          2 0 17 4 -1.</_>
        <_>
          2 2 17 2 2.</_></rects>
      <tilted>0</tilted></_>
    <_>
      <rects>
        <_>
          2 1 7 6 -1.</_>
        <_>
          2 4 7 3 2.</_></rects>
      <tilted>0</tilted></_>
    <_>
      <rects>
        <_>
          4 15 10 5 -1.</_>
        <_>
          9 15 5 5 2.</_></rects>
      <tilted>0</tilted></_>
    <_>
      <rects>
        <_>
          5 12 15 8 -1.</_>
        <_>
          5 16 15 4 2.</_></rects>
      <tilted>0</tilted></_>
    <_>
      <rects>
        <_>
          7 1 11 9 -1.</_>
        <_>
          7 4 11 3 3.</_></rects>
      <tilted>0</tilted></_>
    <_>
      <rects>
        <_>
          8 1 10 10 -1.</_>
        <_>
          8 6 10 5 2.</_></rects>
      <tilted>0</tilted></_></features></cascade>
</opencv_storage>
